{"type":"NeuralNetwork","sizes":[10,5,34],"layers":[{"weights":[],"biases":[]},{"weights":[[0.007818177342414856,-0.09947686642408371,0.049075763672590256,0.1303514987230301,-0.0410909578204155,-0.1714639812707901,0.190824493765831,-0.085230752825737,0.12403909862041473,0.16416780650615692],[0.05497186258435249,-0.19611766934394836,-0.1391010582447052,0.022770388051867485,-0.08344011753797531,-0.029452340677380562,0.07521603256464005,-0.08758269995450974,0.01863248273730278,0.06566412001848221],[0.08448565751314163,-0.16861824691295624,0.18609420955181122,-0.12272706627845764,-0.16628685593605042,0.1211036667227745,0.1830146461725235,-0.09463341534137726,0.030604274943470955,-0.17643247544765472],[-0.15051987767219543,0.02601630613207817,-0.07869645208120346,-0.09242016822099686,0.13371342420578003,-0.1388598084449768,0.08844734728336334,0.07504153996706009,-0.14744919538497925,0.08086510002613068],[-0.009071258828043938,-0.14876404404640198,0.10757439583539963,0.1603049784898758,0.018505556508898735,-0.1969650536775589,-0.10857130587100983,-0.03478716313838959,-0.012303534895181656,-0.1329241693019867]],"biases":[1.121805191040039,1.3997390270233154,1.2188383340835571,1.2673993110656738,0.9921382069587708]},{"weights":[[-0.5186635851860046,-0.38747498393058777,-0.38806483149528503,-0.5890801548957825,-0.35021308064460754],[-0.4875836968421936,-0.6187070608139038,-0.47525763511657715,-0.5328354835510254,-0.4822745621204376],[-0.4144364893436432,-0.6201260089874268,-0.6035181879997253,-0.3607631027698517,-0.36448994278907776],[-0.36922740936279297,-0.6334057450294495,-0.6351975798606873,-0.6228869557380676,-0.3304798901081085],[-0.4740615487098694,-0.5703781843185425,-0.3754176199436188,-0.4178375005722046,-0.46318769454956055],[-0.4294743835926056,-0.5118982791900635,-0.562140703201294,-0.42916133999824524,-0.5072846412658691],[-0.335395872592926,-0.42927131056785583,-0.682406485080719,-0.6579472422599792,-0.31087952852249146],[-0.588161826133728,-0.43762800097465515,-0.5796118974685669,-0.5044877529144287,-0.47806745767593384],[-0.4713554084300995,-0.6399149894714355,-0.5742538571357727,-0.3047863841056824,-0.3920641541481018],[-0.4814701974391937,-0.348762184381485,-0.4615594148635864,-0.5312786102294922,-0.3407590985298157],[-0.5160301923751831,-0.5947878956794739,-0.6399120092391968,-0.46094903349876404,-0.4762304425239563],[-0.3545858860015869,-0.7118281126022339,-0.4407660961151123,-0.4331505596637726,-0.34210094809532166],[-0.34730616211891174,-0.3976869285106659,-0.6489348411560059,-0.6627626419067383,-0.3488956391811371],[-0.5721879601478577,-0.5095600485801697,-0.5225982666015625,-0.5076547861099243,-0.31337791681289673],[-0.36890098452568054,-0.6749297380447388,-0.40173670649528503,-0.5723035931587219,-0.6350006461143494],[-0.4597513675689697,-0.587729811668396,-0.5521954894065857,-0.4096547067165375,-0.6029937267303467],[-0.3578461706638336,-0.6551438570022583,-0.3103475272655487,-0.5809430480003357,-0.3333742320537567],[-0.24152465164661407,-0.5393863320350647,-0.5440787076950073,-0.5954107046127319,-0.48021256923675537],[-0.4802652597427368,-0.4206155240535736,-0.5127495527267456,-0.3601723313331604,-0.5194594264030457],[-0.41068077087402344,-0.7094063758850098,-0.3818952441215515,-0.5491464138031006,-0.501502513885498],[-0.5511732697486877,-0.5069692730903625,-0.44776180386543274,-0.3674323558807373,-0.5303006768226624],[-0.558026134967804,-0.4350225627422333,-0.6092897057533264,-0.29490286111831665,-0.591710090637207],[-0.6583781838417053,-0.37463968992233276,-0.3349679410457611,-0.5680685043334961,-0.61932772397995],[-0.44506123661994934,-0.6493059992790222,-0.545447826385498,-0.4069803059101105,-0.5273396968841553],[-0.5129715800285339,-0.6182763576507568,-0.5396837592124939,-0.5271497964859009,-0.41573023796081543],[-0.6292251944541931,-0.42106857895851135,-0.3529985249042511,-0.6150597333908081,-0.46163409948349],[-0.38299140334129333,-0.619293749332428,-0.34979385137557983,-0.40691807866096497,-0.4153684973716736],[-0.5430653691291809,-0.4405033588409424,-0.6012511849403381,-0.28879791498184204,-0.4732385277748108],[-0.5245113968849182,-0.610876202583313,-0.36501097679138184,-0.615848183631897,-0.383820503950119],[-0.6777667999267578,-0.7205238938331604,-0.4911642372608185,-0.39370426535606384,-0.27357450127601624],[-0.5051708817481995,-0.3720352053642273,-0.35342979431152344,-0.6626841425895691,-0.5917259454727173],[-0.6006698608398438,-0.6250595450401306,-0.32910558581352234,-0.6849516034126282,-0.30467623472213745],[-0.4187963306903839,-0.5376525521278381,-0.6167657375335693,-0.38032156229019165,-0.5670416951179504],[-0.5852706432342529,-0.6333643198013306,-0.45747122168540955,-0.4885086715221405,-0.33434149622917175]],"biases":[-0.8708493709564209,-0.5939606428146362,-0.7557964324951172,-0.6056538224220276,-0.8124527931213379,-0.7052208781242371,-0.7141695618629456,-0.6097576022148132,-0.7641838788986206,-0.9044952392578125,-0.545588493347168,-0.7939012050628662,-0.7107864022254944,-0.7375619411468506,-0.5685791373252869,-0.6132599711418152,-0.8593027591705322,-0.769569993019104,-0.8086946606636047,-0.6293129324913025,-0.7408140301704407,-0.7083950042724609,-0.6489077210426331,-0.625593364238739,-0.5848650932312012,-0.7061771154403687,-0.8876733183860779,-0.7975049018859863,-0.660184919834137,-0.6199421882629395,-0.682582437992096,-0.6282140016555786,-0.6470170021057129,-0.6743838787078857]}],"inputLookup":{"0":0,"1":1,"2":2,"3":3,"4":4,"5":5,"6":6,"7":7,"8":8,"9":9},"inputLookupLength":10,"outputLookup":{"0":0,"1":1,"2":2,"3":3,"4":4,"5":5,"6":6,"7":7,"8":8,"9":9,"10":10,"11":11,"12":12,"13":13,"14":14,"15":15,"16":16,"17":17,"18":18,"19":19,"20":20,"21":21,"22":22,"23":23,"24":24,"25":25,"26":26,"27":27,"28":28,"29":29,"30":30,"31":31,"32":32,"33":33},"outputLookupLength":34,"options":{"inputSize":0,"outputSize":0,"binaryThresh":0.5},"trainOpts":{"activation":"sigmoid","iterations":20000,"errorThresh":0.005,"log":false,"logPeriod":10,"leakyReluAlpha":0.01,"learningRate":0.3,"momentum":0.1,"callbackPeriod":10,"timeout":"Infinity","beta1":0.9,"beta2":0.999,"epsilon":1e-8}}